50 16
1913465890 -0.13098377 -0.1397 0.06254858 -0.17895366 -0.053535726 0.09648153 -0.25043097 0.21359608 0.19261679 -0.108889915 0.030936826 -0.09634877 -0.16996945 -0.14179914 0.04759207 0.19538595
349281107 -0.13927601 -0.20978792 0.1451243 -0.18704583 -0.022127654 0.007445007 -0.15994456 0.22724205 0.119585805 -0.21699217 0.032308977 0.013087353 -0.265574 -0.09018726 0.008494615 0.106916584
1400236507 -0.15045343 -0.13564211 0.18895473 -0.080929264 -0.08202062 -0.007837849 -0.03810878 0.28788775 0.15530056 -0.10878129 0.032549128 0.002625609 -0.17183359 -0.15764387 0.003931397 0.26252088
547558035 -0.06564114 -0.20039175 0.18644458 -0.1582822 -0.03470802 -0.03629446 -0.08646831 0.2819334 0.23593159 -0.07931083 0.044546437 -0.03047559 -0.17608197 -0.14609429 -0.019400889 0.15083314
1946091778 -0.11468823 -0.09442303 0.14662372 -0.11029096 -0.06321228 0.16514547 -0.18286672 0.26201555 0.14598688 -0.071224935 0.0022847084 -0.10287026 -0.2473022 -0.09307936 -0.054353543 0.13327213
348934600 -0.03215537 -0.16661611 0.16913581 -0.15636533 -0.026455235 0.08406335 -0.18912089 0.22424622 0.05181796 -0.22796354 0.0076327967 0.017401947 -0.27369037 -0.047051333 -0.10049107 0.17029801
151143676 -0.12534328 -0.17840575 0.18635501 -0.08841641 -0.18779223 -0.0018763939 -0.15061828 0.25991383 0.14640258 -0.064310715 0.041754916 -0.048409615 -0.1719652 -0.011921787 -0.18532965 0.15581447
692898500 -0.24882457 -0.17094308 0.14474212 -0.12326446 -0.0909855 0.014253778 -0.15514876 0.24234597 0.14305234 -0.21459572 0.04283092 -0.061195858 -0.19339883 -0.12445612 0.043468796 0.08764969
980657600 -0.15570273 -0.057523597 0.14527895 -0.13609944 -0.19146341 0.14554784 -0.09502367 0.27401528 0.13873903 -0.17071393 -0.02754712 -0.121153265 -0.22452322 -0.14306779 0.007457593 0.121713765
78078399 -0.046981473 -0.10317358 0.17952302 -0.059607297 -0.047688365 0.11255175 -0.097788766 0.32541683 0.19803627 -0.055878066 0.05157025 -0.033785593 -0.23775357 -0.01553602 -0.071274355 0.19646187
1600850729 0.010660715 -0.12446238 0.19881906 -0.19092976 -0.095208585 -0.021980317 -0.1704514 0.21223797 0.2078497 -0.14357033 -0.043679573 -0.14130406 -0.17665249 -0.17932263 0.050839655 0.15911356
1053599405 -0.12631483 -0.20155025 0.18216974 -0.12264407 -0.039069988 0.054965343 -0.16599353 0.20335104 0.24203943 -0.1265559 0.0024583894 -0.15811768 -0.16699079 -0.028829524 -0.025830533 0.12581597
480139044 -0.16310596 -0.26562932 0.13523121 -0.075241424 -0.012634338 -0.06553523 -0.25764236 0.19973822 0.1842321 -0.0936303 -0.062941805 -0.11886313 -0.17504093 -0.12882322 0.08737663 0.16640139
855959430 -0.17796434 -0.16808626 0.16689116 -0.13358937 -0.11006021 0.02607147 -0.178653 0.20696168 0.13614576 -0.12383498 -0.019304048 -0.17223656 -0.14564638 -0.0782529 -0.046967063 0.16276577
1823072687 -0.13246934 -0.20946117 0.18314983 -0.081016816 -0.05505302 0.09161333 -0.18435843 0.21624653 0.12791371 -0.11380318 0.024317507 0.05875174 -0.29790765 -0.085806616 0.0053102947 0.13186932
1842530320 -0.18924913 -0.21102804 0.14391366 -0.12839584 -0.043001663 0.08393481 -0.13683921 0.17316322 0.15946293 -0.16113164 0.04807288 -0.03676025 -0.16967231 -0.10160472 0.05567477 0.22998406
1198415165 -0.14047508 -0.12162778 0.14948566 -0.114330195 -0.11688129 0.11027139 -0.1871194 0.21764678 0.17499664 -0.2371228 0.12207126 -0.08180087 -0.2330159 -0.07659332 -0.04285251 0.03821546
1535107174 -0.15953802 -0.20704833 0.14004947 -0.17913806 0.011618172 0.054089263 -0.069852084 0.22495922 0.110040404 -0.06654737 0.040513847 -0.046217777 -0.2170464 -0.14764747 -0.016310217 0.2490614
85975013 -0.2606128 -0.16354488 0.20433803 -0.14296916 -0.042805463 0.07308055 -0.16465439 0.23855709 0.13258293 -0.15872821 -0.027358284 -0.056096435 -0.12757458 -0.01859728 -0.010759608 0.16731358
97925176 0.045938622 -0.15861028 0.16906449 -0.11742135 0.00013125158 0.15575932 -0.1775409 0.29988816 0.11014518 -0.056138925 0.039694026 -0.076189116 -0.19164568 -0.113956444 -0.03760065 0.18398784
923029380 -0.10661459 -0.19265576 0.19271028 -0.115705974 -0.052661363 0.06532727 -0.061866075 0.2308357 0.2557623 0.0038885828 0.065840356 0.05971373 -0.19947097 -0.072117895 -0.04025205 0.25888878
1352454843 -0.10484894 -0.21700281 0.23498315 -0.19150625 -0.07940158 0.021226544 -0.24182321 0.20670238 0.080554664 -0.13568442 0.08685034 0.049821127 -0.122180596 -0.12898837 -0.07321527 0.12612633
1741626453 -0.07941396 -0.1085526 0.09486205 -0.101694494 -0.107154034 -0.044114493 -0.121421315 0.3397179 0.19922015 -0.096656516 5.133044e-05 -0.056540616 -0.2669572 0.02972379 -0.10317985 0.20606254
840466850 -0.08242606 -0.17132832 0.15714927 -0.011500659 -0.0752967 0.110230125 -0.15810414 0.2669626 0.16412325 -0.16714595 0.0941223 -0.039020024 -0.2429168 -0.028352236 -0.02766047 0.13590974
1649169323 0.02649739 -0.2021213 0.2087643 -0.22116783 -0.07115343 0.012203518 -0.115000755 0.22158274 0.14886191 -0.11498098 0.0646647 0.009183594 -0.24126704 -0.06877698 0.013753714 0.1547765
209847108 -0.18299676 -0.15069169 0.12133461 -0.1534119 -0.056365382 0.09312629 -0.16438207 0.27288106 0.038084902 -0.13689426 0.022988886 0.044836376 -0.3049827 -0.049860075 -0.026646959 0.15285148
50039827 -0.013152727 -0.30084234 0.20930396 -0.12013992 -0.104948945 0.06741716 -0.13662933 0.22193368 0.045225844 -0.07859183 -0.03303666 -0.055442344 -0.19976515 -0.065479904 -0.07624481 0.17773211
2080407379 -0.04497004 -0.24811788 0.16139491 -0.18088673 -0.1432562 0.06837744 0.007198752 0.27679905 0.0884907 -0.07604882 0.008244461 -0.0748058 -0.23545241 -0.007407399 -0.022858918 0.20870458
45060432 -0.108403206 -0.21621716 0.23852016 -0.1871156 -0.050706115 0.03875877 -0.101935744 0.23691311 0.07060911 -0.0569531 -0.020387303 0.019106079 -0.2994906 0.010864367 -0.00363547 0.13812725
1872033263 0.03963295 -0.24837044 0.15696004 -0.0628004 -0.099552415 0.11010019 -0.10347753 0.2261274 0.16874804 -0.06569599 0.06690557 -0.07204212 -0.28058884 0.0023591332 -0.11012129 0.17058918
17379832 -0.07112172 -0.2013854 0.21024081 -0.19803041 -0.08811353 -0.026025655 -0.22116482 0.18087628 0.113268 -0.087198384 0.06802191 -0.015059884 -0.20681283 -0.11535294 -0.098426245 0.12328902
1748431652 -0.009777725 -0.1847964 0.17231067 -0.13028832 -0.08423664 0.11589377 -0.17516854 0.14625882 0.15543352 -0.055793002 -0.05558467 -0.14575985 -0.24196544 -0.1290697 -0.036058526 0.22858438
677738360 -0.090528496 -0.049230125 0.18620777 -0.15868494 -0.0683157 0.012159251 -0.14819391 0.279455 0.19676965 -0.11654213 0.07963036 -0.0363797 -0.23970224 -0.06706842 -0.044566635 0.14571783
1313686961 -0.10468539 -0.14788191 0.21042904 -0.20447765 -0.14915563 0.036014322 -0.19228858 0.20820494 0.17561159 -0.059342355 0.049471747 -0.014594168 -0.1913961 -0.045235023 0.034671266 0.14141582
3697346 -0.06371856 -0.15819833 0.16926588 -0.15311544 -0.12717272 0.1132599 -0.19951648 0.14244202 0.10689225 -0.11015992 0.03769017 -0.13736475 -0.25479317 -0.071624324 -0.095145665 0.15790968
1888755466 -0.10205809 -0.2089122 0.18481237 -0.097858556 -0.14505215 0.03332546 -0.19254456 0.16307878 0.0685418 -0.07024629 -0.058260806 -0.048688285 -0.21772766 -0.07933412 0.038899288 0.2638253
2011752106 -0.025713649 -0.19846381 0.14654629 -0.12250318 -0.12255039 0.06259551 -0.16532783 0.23223102 0.13440935 -0.21236433 0.0048613567 -0.098000854 -0.1262004 -0.08234671 -0.03611112 0.21502465
495352832 -0.030494675 -0.18112093 0.19363825 -0.055724915 -0.1709125 0.0376193 -0.07370069 0.22428718 0.13509138 -0.16895072 0.022642741 -0.0010171521 -0.25147054 -0.119633354 -0.06855006 0.19195922
348875670 -0.07657826 -0.19304848 0.32645133 -0.13797727 -0.037565228 0.14039661 -0.04598277 0.20225294 0.11586491 0.08972983 0.005098062 -0.028569374 -0.18066098 -0.11921224 -0.12230267 0.23732544
857378720 -0.035794906 -0.19062442 0.21062203 -0.13984893 -0.07950117 0.078667216 -0.22241122 0.15327781 0.11984606 -0.17643866 0.06561789 0.058326732 -0.23087221 -0.012496601 -0.13667338 0.19131434
2122776122 -0.09993248 -0.14983186 0.11860016 -0.14413093 -0.16698973 0.08384371 -0.14379346 0.29943413 0.07896272 -0.05642897 0.05175956 -0.089045994 -0.22354276 -0.063934706 -0.06463794 0.14488666
1294758098 -0.09457383 -0.29397547 0.13688542 -0.13657582 -0.057634626 0.15296595 -0.14420743 0.21739924 0.15184428 -0.067098916 -0.0011430818 -0.13899377 -0.12385284 -0.13593818 -0.118206814 0.14521122
1873032707 -0.111952566 -0.0532493 0.12884144 -0.11765267 -0.028714739 0.07676222 -0.16985688 0.19071466 0.17778839 -0.045908175 0.078960106 -0.066269934 -0.30486718 -0.17702563 -0.056351278 0.22086895
732195782 -0.022234451 -0.18609802 0.16407348 -0.11328514 -0.15013207 0.049653605 -0.12946449 0.26575607 0.2401408 -0.05644423 0.008105665 -0.073780745 -0.24602611 -0.097366914 -0.0011269035 0.08654958
1788569036 -0.08564178 -0.08321877 0.14363484 -0.13568604 -0.06941911 0.19190884 -0.09132698 0.24776752 0.11506904 -0.07205166 0.046956867 -0.13984741 -0.2565185 -0.1917935 -0.15147755 0.17880094
1353266412 -0.031741135 -0.15373236 0.17073172 -0.15860587 -0.15973186 0.07531284 -0.09630193 0.24137442 0.15976492 -0.06344352 0.05375629 -0.1097119 -0.21368603 -0.106282316 -0.10334033 0.15645579
1416436880 -0.117973216 -0.16642663 0.21520783 -0.060880404 -0.14916803 0.080849916 0.0028417856 0.31757122 0.22711164 -0.15089372 0.011594494 -0.025986604 -0.11818534 -0.08498651 -0.05622585 0.1666758
933210764 -0.12686545 -0.11870056 0.19792879 -0.2383771 -0.09326208 0.013160727 0.020053785 0.18303631 0.1891819 -0.09979169 0.040660188 -0.088137776 -0.34536272 -0.08074976 -0.07363594 0.13064311
117188757 -0.029901886 -0.24804784 0.1473976 -0.14859684 -0.21562885 0.13675518 -0.073142074 0.18859272 0.27852055 -0.05018109 -0.00227037 0.0028955715 -0.20762692 0.04882033 -0.040074583 0.2310674
1726401631 -0.093656026 -0.1577003 0.09808419 -0.115229845 -0.2977229 0.1526831 -0.16621831 0.105165526 0.15683015 -0.06761963 0.0065513086 -0.055502657 -0.18846405 -0.2221371 -0.08285625 0.26903108
